{"dimensions":[4],"layers":[{"type":"relu","size":8,"weights":{"W":{"data":[0.22778591641352688,0.012531722315091583,0.6920350135214671,0.31905976047275997,1.1351339629385016,-0.7998628778861859,-0.5232624097630836,0.9271470628593269,-2.5916962549415388,2.405361291903329,1.6838806200111416,-2.2066023684234697,0.8279065432221457,1.0564777663488316,2.329028099591764,2.370131456063658,1.6380475961914824,-1.3043709865598478,-3.2327189101866485,2.465316051809307,-2.729152016450607,-2.700420912158289,-3.278375916907188,-0.8053956652765883,-1.1630713928496357e-67,-5.939206078258901e-66,-2.037317280777614e-67,1.151267356770216e-66,-4.525169615867759e-63,-3.346522224460212e-68,1.301828597298309e-35,-2.5024250563399202e-67],"rows":8,"cols":4},"b":{"data":[-0.6038674886716079,0.27043926775559485,0.0010857272434776318,-0.410620301325274,0.12936851199953062,-0.06313944722453771,-0.12081736143109062,0.2729524210391131],"rows":8,"cols":1}}},{"type":"relu","size":6,"weights":{"W":{"data":[-0.032619996175896025,-2.0342555704827356,-0.8874458743422811,0.5851661355088621,0.6869695043694974,0.3564294280857679,-0.3229840776810311,1.7134515037300753,1.1812282626001793,-0.010515368907577946,-0.49078382966311007,0.5283737630313646,0.12189662792368558,1.6007299937725232,-0.1357426085391297,-0.30736491297699503,-1.60354942729891,1.8978118966304156,-0.21085400016643038,-2.098109167029147,-1.2449836977106445,1.064504746939892,1.6859361983523478,-1.0397899405299271,-0.48045077946693626,1.819964149237683,0.1928666727546249,-1.4299214549609138,-1.0298579218517567,1.6995058961617555,0.39164155161209774,1.345919034579296,-0.21967842943156657,-0.2564296086344137,-0.47584794890503274,0.5396738649554254,0.4616318992357287,2.4488725300233236,-0.1283009911147957,-1.1802156123397691,-1.0382196087222604,1.517755473377334,0.4753141274275234,1.1981886654461993,0.6273811720701812,0.3036842342730663,0.15763419867170736,-0.930957552449274],"rows":6,"cols":8},"b":{"data":[-0.22030909642098337,0.20871678603584395,0.7657498832064412,-0.03333125262167108,0.01883592019962991,-0.9001201794043152],"rows":6,"cols":1}}},{"type":"softmax","size":3,"weights":{"W":{"data":[0.051566031274536066,-0.16592016589756584,-0.3316632166899868,3.59320748569516,0.608202584580987,-2.773900460755454,-0.8874515785658628,3.8408187427582905,-3.831615065829594,-0.8039458889289265,0.5044797476583945,1.1413514756537386,-1.3788981635630857,0.23430357723951292,1.1256677680559586,1.7188314893471803,-0.6106430466085319,-0.2534983997343618],"rows":3,"cols":6},"b":{"data":[-0.538755393501762,0.5301210597320255,-0.22970306701334495],"rows":3,"cols":1}}}]}