{"dimensions":[4],"layers":[{"type":"relu","size":8,"weights":{"W":{"data":[0.6044413558666969,-0.04526686751790842,1.3172690867489663,0.2745784816814575,0.7001321886101822,-0.9787327524076372,-0.3228788441605491,0.5852626034435644,-0.46873748946410343,0.14433137948635097,0.5785123577735231,0.38202105272537573,-0.2448032145500915,0.12057316823926377,0.4938389387712998,1.0094978677273942,0.5839493062223499,0.21542491432001046,-0.7203377331029441,0.45831236245944285,-1.445621529274387,-1.0448173969640158,-0.5105598686943953,0.5904620828406805,-0.6956452524169194,-0.2611202460957855,-1.4923713402664385,-0.8696776084399747,1.4566751361548969,-0.7334401675535384,0.271546964951795,-0.04189184811483638],"rows":8,"cols":4},"b":{"data":[-0.24645738448615528,-0.10983706259819709,-0.22009256301448887,-0.018816229824307962,-0.008341054022214122,0.14227362343275943,-0.021911711737186527,-0.29276897468723406],"rows":8,"cols":1}}},{"type":"relu","size":6,"weights":{"W":{"data":[0.528443912673898,-0.1810804152531512,-0.9821323129227156,0.9989899928338154,-1.4706083460390087,-0.1730045347502871,-0.054362329885813465,0.06296265094263166,0.4626878003157522,-0.4167448848871718,-0.01891067467453368,0.29904526323571723,-0.8796686208054805,0.44828788232709854,-0.02225555180986944,1.1490640214389063,1.0451057041905283,1.6283690376333155,0.272917456396658,-1.453652502908623,-0.2826449485578112,0.19238923290524196,-0.8407493517763199,-1.1974686398381802,-0.7608421396855405,-0.6279742959879032,0.5197716167218379,-1.059995768909852,-0.16606659381256522,0.8329412805281211,3.248958440610696,-3.0110500262501514,3.5066950638213266,-2.54144989911005,-4.695388503691287,1.7680749555145974,-0.8206572074976234,0.19800981791758865,-0.4316681146186821,1.018913314723023,-1.8671735638415585,-0.6908911665763648,0.40161661109290564,0.40360574438002805,-0.16719826456517825,0.6533836031987498,0.20320091311651742,-0.40143182319881154],"rows":6,"cols":8},"b":{"data":[0.07489565923141527,-0.0915869017039504,-0.055289192778942266,-0.24453222666083138,0.01716685070137325,0.016616762924981272],"rows":6,"cols":1}}},{"type":"softmax","size":3,"weights":{"W":{"data":[0.2511276621372824,0.7228336036196467,-2.121955206084564,0.154038717919728,1.2164837115835099,-0.16889848835493515,2.0073452557421545,-3.394575755063701,2.9246263133247137,-0.12601804105538258,-0.5048273928329313,1.9344499173803928,-0.33478421752634646,2.4570268469384264,-1.085320794203698,1.1753084657821145,2.1955719285845006,-1.6104523711396124],"rows":3,"cols":6},"b":{"data":[0.10474519795701309,-0.014481408897522516,-0.03876127248921966],"rows":3,"cols":1}}}]}