{"dimensions":[4],"layers":[{"type":"logistic","size":8,"weights":{"W":{"data":[-17.14043794045631,-1.247227628218217,-1.213558403195486,-2.1177543530954543,12.672533391022638,-4.9455155114014415,-6.046867811492706,-4.467313910757855,-75.35991212557965,3.593262832683532,-1.1848587198190308,-49.62836283918228,70.87772988627532,26.802874008733546,68.2329113795123,52.444586250632106,82.2029180424635,-5.408568883923283,-1.4554935693483215,65.89746731424889,-82.92911042922029,-39.152376970627486,-95.11315396172975,-73.05853404457267,-0.813814645479475,-0.23480335789670756,-0.8775520129289102,-0.9272873167043968,1.1826604993500724,-0.6678493780717717,0.030655202284504215,0.8038383169103241],"rows":8,"cols":4},"b":{"data":[-18.287396299558377,-1.028178418659489,-1.9383218463622065,-2.879858802658684,11.928598578640658,-4.334763074645304,-5.7811804534952405,-5.218342860093798],"rows":8,"cols":1}}},{"type":"logistic","size":6,"weights":{"W":{"data":[-0.5229689596986359,-7.735757709124397,6.594511776851735,7.609340142710299,1.1477985792635756,-2.2314705861743214,-0.24227925601255837,0.706231726470378,-0.42238048499207703,-0.07921858066057905,-0.6044066073986365,0.8628103424817769,-0.5287159604211915,-0.08873628607428083,0.044487889863047456,0.18640243659889788,-0.9639648713134732,0.536084699699511,-8.371120207396533,-5.422716568523309,1.3233362838154032,-0.05980644991759673,3.123777863157391,-9.917228165172764,-0.6923603789188292,5.288555277958013,-6.441932810961181,-8.175476201518107,-2.0260238695538106,2.1660255011561538,1.742227524353645,1.4139768568359428,-1.4294694293986043,-0.5525824427559258,-0.818143409355314,1.5877454293825295,4.934750178686579,3.3815005956466386,-3.9388819993503876,-2.9456891739500186,-2.8939148145694125,6.1025221008222665,4.900057640199708,3.1058107184128607,-3.9285905550902958,-1.777533749957313,-2.4857049998931453,4.406452510436566],"rows":6,"cols":8},"b":{"data":[-3.421935107710717,-0.2947940104435812,-1.85136727978844,-3.049735100975983,-0.9416364277610074,-3.399092322613325],"rows":6,"cols":1}}},{"type":"softmax","size":3,"weights":{"W":{"data":[2.1440128218293526,-1.6511642550878474,-0.8916650813933142,2.3470307047915613,0.40356062305764046,-1.70620208676649,-1.6773816734104599,-0.7284414464022432,2.352987098600763,-0.7278919058402263,-0.7211379887096802,2.865342561351797,-1.4763326786784967,0.86673865742631,1.4912647140628428,3.3406985050089038,-1.2933350995761537,-0.8141528878242409],"rows":3,"cols":6},"b":{"data":[-1.3574053638980625,2.350202537558053,-0.9927971736599873],"rows":3,"cols":1}}}]}