{"dimensions":[4],"layers":[{"type":"relu","size":8,"weights":{"W":{"data":[0.14331313000341214,-0.7501646590803323,0.39985339837903455,0.5492388349103575,1.0626349445755354,-0.7686791293430825,-0.47443176157443534,0.9618126031789818,-3.1957260218541657,0.08372743001664759,1.6902120534067164,-2.62938265493079,1.3840595944077532,1.7633366804292312,2.9016766486989707,3.2700304903708584,0.7070136528628228,-0.1582111561108987,-3.0970696917871203,2.235221485605282,-2.3548271501453883,-2.221203901294376,-2.6079752136710868,0.019790917190929222,4.672031591930395e-12,9.799435696309187e-13,-3.387833717391385e-12,8.432614322007971e-12,9.131427024461607e-13,-3.916178438359578e-12,2.362955175801578e-8,-6.2140635564647625e-12],"rows":8,"cols":4},"b":{"data":[-0.6887742209122505,-0.4933498645690398,-0.2926733560630562,-0.18053692355574102,0.054901668224758594,-0.028882397567552627,-0.07121642004221751,0.3059035217521892],"rows":8,"cols":1}}},{"type":"relu","size":6,"weights":{"W":{"data":[-0.11318005242781158,-1.1028530627281117,0.87607487761019,0.2915246171537789,0.17056235753655616,0.0998537275432317,-0.580220067024958,0.3032087866243804,0.24802121141552155,0.36901460772538913,-0.22191201679393888,0.5182968684048347,0.42973528059461846,1.332036590013001,-0.37675220596271486,-0.22527503201815546,-1.2108009655350138,2.024283060709819,-0.5791907953490302,-2.0030188870061725,0.3645007488973943,1.3267071214630415,1.650187403819371,-2.077217952898226,0.588661976338521,2.118278671998067,-2.0446806186284068,-2.5079902039213535,-1.7870062451463178,2.667381319887949,1.0474470067702677,1.1538894309139394,-0.6042034886012793,-0.24191937678337283,-0.3925218708149442,1.5342918144026825,1.0044729113276845,1.7418415063437065,-1.1312235759075444,-3.2616671560335004,-2.2386435686259296,3.393225851630499,0.611999783973091,1.1839910833026719,-1.2698710222800051,0.1027879759106778,-0.0287610264421533,-0.9744232124602706],"rows":6,"cols":8},"b":{"data":[-0.2969454757775538,0.14822522907311883,-0.4043234846252835,-0.07886242697451225,-0.06328103259624344,-0.7484664285531533],"rows":6,"cols":1}}},{"type":"softmax","size":3,"weights":{"W":{"data":[0.36332417177120957,0.002811861353627561,-0.8780901078030726,1.4954745717622533,1.5385922309237487,-1.9702170309507376,-0.3964030405333507,-0.6986946279331187,1.6576565580629055,-0.7133156237508719,0.6255416781277074,1.1424283789182563,-0.9496672813886995,0.4028683444313379,0.9955658900490184,1.8581099343044432,-0.7270497594075277,-0.44581836466951535],"rows":3,"cols":6},"b":{"data":[-0.4872401629767817,0.47035607099211973,-0.16193675149881756],"rows":3,"cols":1}}}]}