{"dimensions":[4],"layers":[{"type":"relu","size":8,"weights":{"W":{"data":[0.8349494735590594,-0.4372735868237678,0.5994621602708061,0.8137114506123051,0.9850823433398694,-0.891140405985611,-0.5474455526002041,0.4360598650354558,-1.1750306616819932,1.1596256355763153,0.9232518827477946,-1.0710551177513326,0.16154221720475068,0.6885485930274968,1.919830043253111,1.2409033295296366,0.6495824593363381,-0.23934631908912876,-1.9632781519934601,1.4357939268330078,-1.530471325201451,-1.5624221339669557,-1.9545039197727967,0.27888934146342076,0.00001372221795325538,3.6665759530237e-8,-0.00004087855893142074,-0.00024086464711123328,0.009158414820612559,-0.000001269214420908682,-9.486221410256961e-9,-0.00001332014350571139],"rows":8,"cols":4},"b":{"data":[0.0017221414372488658,-0.1785982887673193,-0.09392066667247058,0.08274211277991621,-0.023215462561966976,-0.15032346003327876,-0.14383655628054548,-0.22092423704840983],"rows":8,"cols":1}}},{"type":"relu","size":6,"weights":{"W":{"data":[0.02012503679673516,-0.9520672909775271,0.2871806738371899,0.15392269925309232,0.08988506983230074,0.3711435188284827,-0.5136880930749759,0.38137483695473023,0.14551914083025863,0.42814748649457746,-0.2687592336987788,0.5955553431481557,0.03604443087629382,0.9687224998566238,0.22627495001908657,0.12947155977937408,-1.183753119889472,1.5932698506635226,-0.03552169805231253,-1.258960846116433,-0.5483204040938143,0.37350548095822006,0.7983436137533474,-0.6557709103200853,-0.5345828004713763,0.9846962433296842,-0.0878794138873873,-1.2821411969893004,-0.7091013368892158,1.6342110264292937,0.8268234368479491,1.1634446359732131,-0.41470927120577433,0.007031275376745851,-0.2767962761899901,0.8289623110837805,0.8428800744438583,2.1403883590528126,-0.7266135767599183,-2.356590232438205,-1.4690496135604454,2.30529493806051,0.6728677456835727,0.46972290123171906,-0.3238366033813464,0.2919317118828594,0.1379772193452483,-0.204089487513215],"rows":6,"cols":8},"b":{"data":[-0.09574876978468899,-0.15951762824847993,0.03944593561669977,-0.047296923586453814,-0.034941471927501695,-0.10343724669579532],"rows":6,"cols":1}}},{"type":"softmax","size":3,"weights":{"W":{"data":[0.1751433983117512,-0.6181721553466284,-0.01172831461807936,2.231810665955159,0.5193354966876462,-1.0264680627682206,-0.3741690795954203,0.7566579940527901,-0.3832099065320896,-0.1780897643060797,0.7656816000171324,0.7168975857251018,-0.6259842350046075,0.63088313707431,0.5757812895970968,1.5806443000208183,-0.36821099155990256,-0.22493260363333442],"rows":3,"cols":6},"b":{"data":[-0.20520337147730774,-0.009422271930032502,0.1572983080619182],"rows":3,"cols":1}}}]}