{"dimensions":[4],"layers":[{"type":"relu","size":8,"weights":{"W":{"data":[0.9746251801711947,-0.5862955674762362,-0.9331516757559156,-1.8974114598168639,1.2080081998646324,-0.5078381014277187,1.7303892211115501,0.2760527591677848,2.164482865048826,1.782773066789752,2.2678034791680304,2.3511171582929706,-1.762114600242666,-1.4855299163169942,0.7482259292530682,1.2402293486708498,0.9894734644395512,0.4221009036831039,-0.9574515517971255,-0.5978995008783866,-1.2377808533332957,-1.0001284058965632,0.2666027169605196,0.5962693492364336,-2.245928866374417,-1.3730803571738766,-1.2003795720191548,0.08946550215290654,1.9814279314168437,-0.5353963132742287,-1.8295831207635,0.7850918947318564],"rows":8,"cols":4},"b":{"data":[-0.668126521658411,-0.5513815710920056,-0.6371039040094848,-0.9765863862099758,0.4828157076482308,0.103680852915066,0.02044507847882025,-0.077742194646238],"rows":8,"cols":1}}},{"type":"relu","size":6,"weights":{"W":{"data":[-0.9573631609685898,1.337254056782148,2.9087418152853237,1.7972676643204184,1.332737006277845,-0.5880743213304205,-1.3179735800604173,0.6037920951008386,1.3969140268415738,1.6970461718982095,0.7704668755501588,-0.5219168513782672,-2.4538558740016962,1.4798721369343384,2.4652134381844055,2.8316640830075404,0.5197912646171056,1.4009190398915,-1.1767821676653027,0.31014332057723987,-0.8889596582137681,1.8451779475861205,2.4491535847162567,0.09097690796680427,0.2602170446047547,-1.4709777153409729,-2.817930534647135,-1.869073114692373,-0.873010987406154,1.7651064415819564,0.7251658486041769,0.7969384268057718,-1.11611980710943,-0.1860857523131668,0.05678001373068275,0.7369542770027279,-1.9786212320819971,-0.9778386463273485,3.3533506848540506,-1.7121311078424806,-2.7385397950340096,-1.441714132063941,0.5529236560871674,0.0970514039428149,0.4270048912322737,0.7643487137605651,0.09343849932987495,-0.662026718537448],"rows":6,"cols":8},"b":{"data":[0.13054798029505627,-0.03722005358192497,-0.17525331312007444,-0.6698502662217999,-0.45461062922698203,-0.019831725430415618],"rows":6,"cols":1}}},{"type":"softmax","size":3,"weights":{"W":{"data":[-0.23510299477054453,-1.138474290595645,0.7134907937390298,1.7770472870487528,-0.3176564519117952,-0.8414107374155666,-1.1841344239862486,2.0590075363064546,-0.38578404266715377,1.8428983021355405,0.3781341942656181,-1.6573456834981597,1.9421911143823463,-0.8412397461754345,-1.051412968418952,1.705954343244869,0.6977458069504103,-1.2894745217307226],"rows":3,"cols":6},"b":{"data":[0.06738308157992813,-0.08528250475542828,-0.031269024972866655],"rows":3,"cols":1}}}]}