{"dimensions":[4],"layers":[{"type":"relu","size":8,"weights":{"W":{"data":[0.23576374164693184,0.024795534355045837,0.7316532335336224,0.30688363360472937,1.160469302917522,-0.8411062870898586,-0.5238063791925298,0.9034467452400035,-2.5553891580573604,2.427011571002056,1.668813028092465,-2.188755415939487,0.7755672889549154,0.9668565534979519,2.2501769302224015,2.3413687366151144,1.6640563295957307,-1.3174951821235612,-3.2202563666813515,2.4488454620496527,-2.7324655909910933,-2.7548436646916143,-3.3208099182826087,-0.8540098016342472,3.036975320674754e-68,-9.679243503847102e-65,-1.4984248547469642e-67,1.2015685634878033e-66,2.676286967523353e-63,-2.605419574616271e-68,3.347202209971899e-56,1.829159212651287e-67],"rows":8,"cols":4},"b":{"data":[-0.5973576660992488,0.2834270218677192,0.03845865325243118,-0.4240103999105374,0.1524045767087642,-0.10070987975111438,-0.12030736447252671,0.24669494110720397],"rows":8,"cols":1}}},{"type":"relu","size":6,"weights":{"W":{"data":[-0.03549083760719662,-1.9847386672083684,-0.9123990708186395,0.5984909953988069,0.7132384779861293,0.35185397397624346,-0.5444106587982873,1.4500222370191402,1.212850682456205,0.45366014481206957,-0.2456735162516892,0.5797266432047878,0.1213969672088803,1.6264418255249977,0.015565858032119304,-0.21298545768074248,-1.62754112846054,1.8981103963049195,-0.20191673356395629,-2.078019930615254,-1.27568166523508,1.0392173210099103,1.6690666593059929,-0.997046946371862,-0.5346131098135857,1.806227143064282,0.3578513448513715,-1.5029548429291335,-1.0275142271686202,1.729229082805378,0.9597688594085433,1.571411140881632,-0.2689898408095674,-0.5024931261151854,-0.8963482169235512,1.428715954639619,0.8952814855207503,2.833847264797687,-0.16627841713415542,-2.550099351642915,-1.9046094324596654,2.3860845442285106,0.4970159469172421,1.1775013433695554,0.6554687650748132,0.266355683902626,0.10181435226752167,-0.842544226868791],"rows":6,"cols":8},"b":{"data":[-0.21446856608891937,0.18662016331152498,0.7626606354001314,-0.08109648909995797,-0.03793782724382426,-0.820078312474777],"rows":6,"cols":1}}},{"type":"softmax","size":3,"weights":{"W":{"data":[0.08694481826800744,-0.20610378174558303,-0.32913420603806226,4.248387354575347,0.5600963233729215,-2.832781853633412,-1.3838661014443177,4.161729316133849,-3.946476723079294,-0.7376378854861014,0.49054198050004466,1.1497875876945407,-1.3212826501376747,0.21687663900362805,1.1359038640421264,1.747735208006585,-0.6008836457125997,-0.2593708660018366],"rows":3,"cols":6},"b":{"data":[-0.4990373637800386,0.5086483941702326,-0.22238237653218632],"rows":3,"cols":1}}}]}