{"dimensions":[4],"layers":[{"type":"relu","size":12,"weights":{"W":{"data":[1.1476843077463506,-0.5056731904186147,-0.13728989730732988,1.188065231836932,0.16228347534461243,-1.1200680099515872,-0.11568002068801428,0.7651744577321813,-0.3836218881499779,-0.3158416807653462,-0.48095013707064527,0.05514548409671692,-0.7003369322991502,-0.9477454159292217,3.8095527476416056,3.623208363516386,-2.656280935542098,0.6832659519226782,-0.8606137395543823,1.3070839982386,-1.7607622787368178,-0.9764267741077661,-1.4023706449783335,0.03657693813538838,-0.1473454556742167,0.6699824302173055,-4.8198475526768565,-3.5825337134815896,3.8364514469857074,-1.198182447133646,0.26695848028399505,-0.3146401439063301,1.080990079852132,-0.47502800380890525,0.5623870274183156,0.6247391900368902,-0.015547423865601838,1.1454603066513995,-0.5026995415261218,0.6574574713654573,0.06479892241228226,0.6539592196083817,-0.241730521627053,0.9486149299362271,-0.5249946485094199,-0.35747046321853365,0.7455686219590516,1.0152359348857218],"rows":12,"cols":4},"b":{"data":[0.32515682005312546,-0.25165761232907896,-0.8268376181659165,0.4677896756280565,-0.841599038333977,-0.38960044287209705,0.28537851088596133,0.11530592180679329,0.15568333911956753,-0.4494673786746599,-0.4290332508779396,-0.259481394701836],"rows":12,"cols":1}}},{"type":"softmax","size":3,"weights":{"W":{"data":[-0.8537147928954547,0.7033493285075182,0.213421499323157,-0.5812249989757982,-0.43594456112380126,0.23591836126500654,2.969475059237348,-1.554725539847383,-1.6899037454583634,2.0789318151639975,0.1572743904865106,-3.577934948968065,-2.244235946803676,-0.30690074002938744,3.4059926061511936,0.5102476142472516,-0.32728878990665183,0.037141285214600306,-0.18938881832309495,0.2407634466510683,0.15563970774726676,0.13575569471358964,0.5508013259617733,-1.0521964025359856,-0.10599586850833925,0.40237064423854474,0.8230842023467398,0.31118431193842083,-0.3045904498975191,0.3344129644797128,0.14576036000579912,-0.29097344770479394,0.3996446918787914,-0.37545900774014873,0.014343658419055355,0.34174705354160767],"rows":3,"cols":12},"b":{"data":[-0.2782237718751239,0.7185679642721634,-0.440344192397039],"rows":3,"cols":1}}}]}