{"dimensions":[4],"layers":[{"type":"tanh","size":12,"weights":{"W":{"data":[0.7502390808239412,-0.55837763177525,0.6488139149700732,0.7071448412841957,1.1536881831074,-0.7117333048840492,-0.25241547008172543,0.563083802206095,-0.45646773645539646,-0.13369667188458453,0.0333636074357389,0.3008829607534753,0.48182269214971446,0.9402664611525048,1.9211059366028584,1.8744835919130782,0.1993805585490518,1.1473342017740469,-1.3030517240064148,-0.17521252870521722,-1.5806467221572473,0.021665036537349483,-1.8437503892363791,1.325739762235686,-1.5163414953654255,-1.7440619866901912,-1.504135380614452,-1.4811906168501756,1.4684699421767542,-0.952512052208144,0.644571773619314,0.9116887803530794,0.6762733776358254,-1.402681501857334,1.0636270172878262,-0.28929343751778047,-5.588842304070137e-20,0.000015137605135723363,3.3515320083170627e-20,-4.582289124899089e-16,3.6965609987081016e-22,-3.2154146484021014e-16,8.768682094039369e-24,1.0009222719723347e-7,-1.0419261008412032e-19,1.7555270855612488e-23,-3.452921702576644e-13,8.003620501901954e-7],"rows":12,"cols":4},"b":{"data":[-0.08244429317488083,-0.3009233971650956,-0.044186710710077716,-0.023515858911140008,0.14644528343313565,0.028447944251495293,0.15078373675577517,-0.09169957990764677,0.08711346117158499,-0.2657826636236748,0.0887450987531437,-0.014571290018006184],"rows":12,"cols":1}}},{"type":"tanh","size":8,"weights":{"W":{"data":[-2.0259877670888717,-0.32477895531824075,1.3568334428944913,-0.4729075926086241,-1.7743791623499923,1.2821503106994483,-0.25971480778482303,-0.28597192577172137,-0.8248081550342939,-0.7153157723033309,0.07321570129421161,-0.8014890683300301,-0.5746779287730375,1.3107373985931512,0.5329616627634581,0.2968609088004677,-1.9953791478863319,-1.0584731493345545,1.6355023197067782,0.7925424369321035,-2.0243127737274405,0.622593717119715,-1.1457424087152073,-0.46719941637572493,-1.733066877221121,-0.5320601870583322,2.4015498138012314,0.7768304311259033,-2.265984567930917,0.6366645581899385,-1.0135000753935308,0.013467172287377236,0.2873975630460682,-0.5228728971927145,-0.06499844642043666,0.6687545386449109,0.4779223945506579,-0.5392976112388914,-0.4198065006679491,0.6794270567928244,-0.41679733614449505,0.21771983820736243,0.7785047464299988,-0.0548728665316418,0.011963866639113453,1.1475633375205585,-0.12357845501373119,0.4145458297676073,0.3439391416281876,0.771375235651751,-0.22355334313632835,0.465360974664576,0.5693098814315944,-0.6449971784638243,0.9122361282619323,0.5346101198981541,-0.41507738632698254,0.5219837283838232,0.16364160810796805,0.0327627477378709,0.2507021988269442,-0.676430696377346,0.3997250907827155,-0.1437125900556427,0.33588722810384547,-0.0738763640644517,-0.8685780573865913,-0.4931360222081286,0.5793102821927832,-0.16009402851818924,-0.1713839206842405,0.4582308489979918,-0.7045727882626078,-0.5446921448859646,0.07982623029986524,0.24036006687016795,0.5498851811354598,1.057359561936307,0.2446840345060986,-0.30906049108062805,1.653208279871029,0.6720802260811717,-1.504563285560233,-0.228119965201979,1.3935460266638169,-1.829101150854489,0.249430889361787,0.597775139988713,-0.8045821375672724,0.1907270655135438,-0.18213535894693458,0.48077156369581375,-0.9243841415826664,0.6366136587381851,-0.8300789461475767,0.12515568966586024],"rows":8,"cols":12},"b":{"data":[0.005637220356371956,-0.06095923991384428,0.034228710682814634,0.12954792852699842,-0.005985788718418989,-0.27624177543970285,-0.04566470873410758,0.1196785073798429],"rows":8,"cols":1}}},{"type":"softmax","size":3,"weights":{"W":{"data":[-1.769619873704064,-0.23069470697937672,1.1202296451651161,-0.08585012908291695,0.4721734844557499,0.8265197249417702,1.3452266447071488,0.6083134842124045,-1.5795420352039862,-0.7585324282927272,0.22966877634258026,-0.9014831662802204,-1.3553511615571365,-1.086533156579776,1.1718652312362794,2.2552149321374046,-0.4600713620232659,0.3148092137529956,-0.5383160787671024,-0.9135546094043598,1.0839281941198122,-0.6710691099915884,0.43069512461072534,-0.18980822761099042],"rows":3,"cols":8},"b":{"data":[-0.1832891791163014,0.13905449032408174,-0.04729786300284068],"rows":3,"cols":1}}}]}