{"dimensions":[4],"layers":[{"type":"relu","size":12,"weights":{"W":{"data":[0.8324298149960746,-0.3243951496104708,0.7483787818143436,0.6998825896192443,1.1952765052518255,-0.7500091826862062,-0.3642754046732176,0.713528047413283,-0.48538891315965765,0.11307816385355302,-0.16879154324941448,0.34749048775267005,0.463188292206848,1.0501687452677282,2.083061692324028,2.0301777320679495,-0.026146310406337227,1.1499961883408694,-1.5011169614198818,0.136097580531179,-1.901286241109898,-1.6916381978544328,-1.963370054546439,1.5948607437996256,-1.4003600309948636,-0.879345940547493,-1.5576998585797195,-1.6966871119533695,1.7779930118737197,-1.012824412203976,0.6816072051085205,0.9613605596663131,0.8127319890258674,0.14718674511780286,0.8467050681984291,-0.45258967920519383,-5.588842304070137e-20,0.000015137605135723363,3.3515320083170627e-20,-4.582289124899089e-16,3.6965609987081016e-22,-3.2154146484021014e-16,8.768682094039369e-24,1.0009222719723347e-7,-1.0419261008412032e-19,1.7555270855612488e-23,-3.452921702576644e-13,8.003620501901954e-7],"rows":12,"cols":4},"b":{"data":[-0.000351226635067574,-0.0659877903587099,0.05527337923593638,-0.030843944650006724,0.18833836132868553,-0.009619083325482228,0.03905134854299659,0.05812071126039724,0.058482289181665835,-0.018677421776441536,-0.1134570918065907,0.03194235986520799],"rows":12,"cols":1}}},{"type":"relu","size":8,"weights":{"W":{"data":[-1.4979438898445685,0.511724792308274,0.6999572752911886,-0.33145130335490264,-1.2297642748994797,0.5230028412460497,-0.059075935152860574,-0.4824610327247444,-0.741081979727179,0.260822146044891,0.9526671249135824,-0.7994528657692406,-1.3938129708778357,2.1784237506455657,0.20472704506803605,-1.0875960473621735,-1.9871537622973305,-0.4098585182655731,1.1320568781435398,1.137931807072938,-1.3265931820738033,0.40729728223528905,-1.2123620571556608,-1.0131173498139499,-1.6237577208169551,0.39706588873345644,1.9329479914992804,0.8098769149920665,-1.5330500255612223,0.7815295995019028,-0.8971226381687788,-0.6813927185572891,0.3265884708315366,-0.6040624265363155,-0.2710117953737674,0.5667981368414412,0.7039366405574454,-0.6846380060953091,-0.3046356119447043,0.7774548604371978,-0.40248203580953,0.28362836105410355,0.8823946076868339,0.1411271831082638,-0.19317695792958195,0.8573306193286607,-0.2783389943780111,0.29571213359101317,0.5399663798922457,0.44905909904626345,-0.20725023851851906,0.13768525410795793,0.530981977400155,-0.2568841835138647,1.0422218938632026,0.632500637706091,-0.453473771095334,0.4175051961794465,0.0429200314628057,-0.06523590724770233,0.37189927963153097,-0.6964111169394482,0.4668509631839006,-0.10031342858237076,0.6100744480321983,-0.056230166626793116,-0.8387645983429665,-0.5678861775549061,0.6450652146829082,-0.07055116402950132,0.10882401898519467,0.6283050194743232,0.3078786815560856,-0.0015645475026315205,-0.5753923458712467,-0.20750967813008128,1.1923930219693528,0.39772937089936133,0.853196729090079,0.012598604543887854,2.184965195656505,0.9957155331027976,-1.6424564535857764,-1.772444683937311,1.6991503272930106,0.2504848582820192,1.0469733413831686,-0.17451798236191995,-1.1978232800949313,0.14627662248849188,0.009132632641904259,0.6965395337942903,-1.2324637686708295,0.5857148824138446,-1.16357821017799,-0.10848032313950608],"rows":8,"cols":12},"b":{"data":[-0.1045269672692755,-0.16748697538013624,-0.030656817335367344,0.10218141543104026,0.024274752147008836,-0.32195842210765313,-0.06599671227618678,0.11975897055836307],"rows":8,"cols":1}}},{"type":"softmax","size":3,"weights":{"W":{"data":[-0.917276311517737,-1.6777058227596564,2.112992971570906,0.7107788133778989,0.11237892393100386,0.4866664861274104,1.3874434562828113,-0.3832973626651343,-2.102569900342863,-0.6603915155579314,0.3374277942599904,-1.1206072800950873,-2.038234721266727,-1.048166688943503,0.8670261074294737,1.20033083948516,-0.5780613306510095,-0.040661589159202004,-0.664008862108374,-1.1670256243487853,1.65341479355421,-2.8934270382380953,-0.1977069317756009,0.4376963459093332],"rows":3,"cols":8},"b":{"data":[-0.1779059988798148,0.10865211028586551,-0.057612917174206656],"rows":3,"cols":1}}}]}