{"dimensions":[4],"layers":[{"type":"relu","size":8,"weights":{"W":{"data":[0.8157646596559391,-0.306436041445113,0.7397337159546988,0.6801605724828438,0.9954684263823033,-0.7996866889779134,-0.44278120173066227,0.5763035630711166,-0.5376383237776571,0.15621408685116303,-0.10653581737616101,0.19325661763845545,-0.388438890953666,0.06606923729779822,1.1344996312927194,1.0429836396783203,0.3041226380836416,0.44884352870371114,-0.7736845326899255,0.2545443350802004,-1.176804176166289,-0.7515234920533719,-0.9695661263173597,0.610792138682907,-0.5597229337081493,-0.0027313827589432564,-0.624849749724716,-0.6757511758683006,0.9378474916671439,-0.41123218095149067,-0.005293235976845482,0.5495417427119665],"rows":8,"cols":4},"b":{"data":[-0.01751749717718951,-0.04773005588357291,0.04629077495767634,-0.05085431002849311,-0.012855554302799685,-0.058843424426036905,-0.039162189016600076,-0.08072022911791991],"rows":8,"cols":1}}},{"type":"relu","size":6,"weights":{"W":{"data":[0.10616334099489765,-0.3981972218928505,0.2922533921090104,0.019302200394157337,-0.01379680960905507,0.7582734288028612,-0.49561025314197105,0.38534914012479377,0.13941360205300105,0.4590988420859256,-0.22785164002763547,0.5774058555924372,-0.25601008014514365,-0.10119915836909882,0.4245821883170088,0.6575364821353098,-0.624451175290578,0.8881591343220486,-0.006729741208321576,-0.7417916322896949,-0.5034945246530305,0.2584326951635083,0.6829507196908016,-0.2959649343642388,-0.6260907644785458,-0.6609276147900965,-0.189235111111595,-0.8257392752047181,-0.3131634098903795,0.9335734656749811,0.7747640253836141,0.6512461236533519,-0.44740176274730575,0.09903324422050344,-0.2102050515544144,0.5006412040694107,0.20755291289573688,0.4757252632330667,-0.12803243866644598,-0.9602357919567436,-0.01687946988060255,0.9328528711786065,0.6938924887572915,0.3581604328229045,-0.3440900198746585,0.38675380970630047,0.2475998213678029,-0.28692665164238507],"rows":6,"cols":8},"b":{"data":[-0.05713520868490944,-0.028608230122738887,0.031929912841203154,-0.026901295494245265,0.0034171728848346673,-0.03698602024127508],"rows":6,"cols":1}}},{"type":"softmax","size":3,"weights":{"W":{"data":[0.27599086840223563,-0.6436682845345025,-0.08471039102785904,0.6295840838225008,0.6572547650617155,-0.20221165908176453,-0.47190116161195794,0.7701110094560274,-0.31975896547485394,0.2793205174699481,0.9275063533815494,0.21519976633553525,0.2025324168483553,0.7401165189685444,-0.07798421912986735,0.8245984711997278,-0.20848384850559568,0.6253403191036971],"rows":3,"cols":6},"b":{"data":[-0.07710758683201767,0.009781899361322868,0.029471956089075088],"rows":3,"cols":1}}}]}